<?xml version="1.0" encoding="UTF-8"?>
<BIF VERSION="0.3">
	<NETWORK>
		<NAME>UNTITLED</NAME>
		<VARIABLE TYPE="nature">
			<NAME>cg04276626</NAME>
			<OUTCOME>High</OUTCOME>
			<OUTCOME>Low</OUTCOME>
			<OUTCOME>Medium</OUTCOME>
			<OUTCOME>Very_Low</OUTCOME>
			<PROPERTY>position = (449, 193)</PROPERTY>
		</VARIABLE>
		<VARIABLE TYPE="nature">
			<NAME>cg04937416</NAME>
			<OUTCOME>High</OUTCOME>
			<OUTCOME>Low</OUTCOME>
			<OUTCOME>Medium</OUTCOME>
			<OUTCOME>Very_Low</OUTCOME>
			<PROPERTY>position = (748, 414)</PROPERTY>
		</VARIABLE>
		<VARIABLE TYPE="nature">
			<NAME>cg07229767</NAME>
			<OUTCOME>High</OUTCOME>
			<OUTCOME>Low</OUTCOME>
			<OUTCOME>Medium</OUTCOME>
			<OUTCOME>Very_Low</OUTCOME>
			<PROPERTY>position = (800, 215)</PROPERTY>
		</VARIABLE>
		<VARIABLE TYPE="nature">
			<NAME>cg15171154</NAME>
			<OUTCOME>High</OUTCOME>
			<OUTCOME>Low</OUTCOME>
			<OUTCOME>Medium</OUTCOME>
			<OUTCOME>Very_Low</OUTCOME>
			<PROPERTY>position = (441, 415)</PROPERTY>
		</VARIABLE>
		<VARIABLE TYPE="nature">
			<NAME>cg22202558</NAME>
			<OUTCOME>High</OUTCOME>
			<OUTCOME>Low</OUTCOME>
			<OUTCOME>Medium</OUTCOME>
			<OUTCOME>Very_Low</OUTCOME>
			<PROPERTY>position = (609, 153)</PROPERTY>
		</VARIABLE>
		<VARIABLE TYPE="nature">
			<NAME>cg22659049</NAME>
			<OUTCOME>High</OUTCOME>
			<OUTCOME>Low</OUTCOME>
			<OUTCOME>Medium</OUTCOME>
			<OUTCOME>Very_Low</OUTCOME>
			<PROPERTY>position = (604, 290)</PROPERTY>
		</VARIABLE>
		<DEFINITION>
			<FOR>cg04276626</FOR>
			<TABLE>0.8467391304347827 0.05543478260869565 0.0641304347826087 0.03369565217391304</TABLE>
		</DEFINITION>
		<DEFINITION>
			<FOR>cg04937416</FOR>
			<GIVEN>cg07229767</GIVEN>
			<GIVEN>cg22202558</GIVEN>
			<GIVEN>cg22659049</GIVEN>
			<TABLE>0.03378378378378379 0.03378378378378379 0.03378378378378379 0.8986486486486487 0.25 0.25 0.25 0.25 0.25 0.25 0.25 0.25 0.8986486486486487 0.03378378378378379 0.03378378378378379 0.03378378378378379 0.006345177664974619 0.4936548223350254 0.006345177664974619 0.4936548223350254 0.25 0.25 0.25 0.25 0.01811594202898551 0.4818840579710145 0.01811594202898551 0.4818840579710145 0.25 0.25 0.25 0.25 0.01811594202898551 0.9456521739130435 0.01811594202898551 0.01811594202898551 0.25 0.25 0.25 0.25 0.25 0.25 0.25 0.25 0.25 0.25 0.25 0.25 0.007575757575757576 0.007575757575757576 0.007575757575757576 0.9772727272727273 0.25 0.25 0.25 0.25 0.03378378378378379 0.03378378378378379 0.03378378378378379 0.8986486486486487 0.25 0.25 0.25 0.25 0.25 0.25 0.25 0.25 0.25 0.25 0.25 0.25 0.25 0.25 0.25 0.25 0.6385209713024282 0.07339955849889625 0.2853200883002208 0.002759381898454746 0.03378378378378379 0.8986486486486487 0.03378378378378379 0.03378378378378379 0.25 0.25 0.25 0.25 0.25 0.25 0.25 0.25 0.8986486486486487 0.03378378378378379 0.03378378378378379 0.03378378378378379 0.25 0.25 0.25 0.25 0.01237623762376238 0.3292079207920792 0.6460396039603961 0.01237623762376238 0.25 0.25 0.25 0.25 0.004789272030651341 0.25 0.7404214559386973 0.004789272030651341 0.25 0.25 0.25 0.25 0.25 0.25 0.25 0.25 0.25 0.25 0.25 0.25 0.25 0.25 0.25 0.25 0.25 0.25 0.25 0.25 0.25 0.25 0.25 0.25 0.25 0.25 0.25 0.25 0.8986486486486487 0.03378378378378379 0.03378378378378379 0.03378378378378379 0.01237623762376238 0.6460396039603961 0.01237623762376238 0.3292079207920792 0.03378378378378379 0.8986486486486487 0.03378378378378379 0.03378378378378379 0.25 0.25 0.25 0.25 0.25 0.25 0.25 0.25 0.25 0.25 0.25 0.25 0.25 0.25 0.25 0.25 0.03378378378378379 0.03378378378378379 0.03378378378378379 0.8986486486486487 0.25 0.25 0.25 0.25 0.25 0.25 0.25 0.25 0.25 0.25 0.25 0.25 0.25 0.25 0.25 0.25 0.25 0.25 0.25 0.25 0.8986486486486487 0.03378378378378379 0.03378378378378379 0.03378378378378379 0.89 0.003846153846153846 0.003846153846153846 0.1023076923076923 0.25 0.25 0.25 0.25 0.8833823656658303 0.02779700614346284 0.08871246863372848 0.0001081595569784546 0.25 0.25 0.25 0.25 0.25 0.25 0.25 0.25 0.25 0.25 0.25 0.25 0.3292079207920792 0.01237623762376238 0.6460396039603961 0.01237623762376238 0.25 0.25 0.25 0.25 0.03378378378378379 0.03378378378378379 0.8986486486486487 0.03378378378378379 0.25 0.25 0.25 0.25 0.1744264507422402 0.2176113360323887 0.5630904183535762 0.04487179487179487 0.25 0.25 0.25 0.25 0.25 0.25 0.25 0.25 0.25 0.25 0.25 0.25 0.25 0.25 0.25 0.25</TABLE>
		</DEFINITION>
		<DEFINITION>
			<FOR>cg07229767</FOR>
			<TABLE>0.04456521739130435 0.0641304347826087 0.01847826086956522 0.8728260869565218</TABLE>
		</DEFINITION>
		<DEFINITION>
			<FOR>cg15171154</FOR>
			<GIVEN>cg04276626</GIVEN>
			<GIVEN>cg04937416</GIVEN>
			<GIVEN>cg22202558</GIVEN>
			<TABLE>0.003128234076582933 0.003128234076582933 0.0001176027848339449 0.9936259290620002 0.03378378378378379 0.03378378378378379 0.03378378378378379 0.8986486486486487 0.009398496240601503 0.009398496240601503 0.009398496240601503 0.9718045112781954 0.25 0.25 0.25 0.25 0.006345177664974619 0.1687817258883249 0.006345177664974619 0.8185279187817259 0.25 0.25 0.25 0.25 0.009398496240601503 0.731203007518797 0.009398496240601503 0.25 0.25 0.25 0.25 0.25 0.001493428912783752 0.03972520908004779 0.001493428912783752 0.9572879330943848 0.25 0.25 0.25 0.25 0.00350140056022409 0.4516806722689076 0.00350140056022409 0.5413165266106442 0.25 0.25 0.25 0.25 0.03378378378378379 0.03378378378378379 0.03378378378378379 0.8986486486486487 0.25 0.25 0.25 0.25 0.01811594202898551 0.01811594202898551 0.4818840579710145 0.4818840579710145 0.25 0.25 0.25 0.25 0.01811594202898551 0.4818840579710145 0.01811594202898551 0.4818840579710145 0.25 0.25 0.25 0.25 0.25 0.25 0.25 0.25 0.25 0.25 0.25 0.25 0.03378378378378379 0.03378378378378379 0.03378378378378379 0.8986486486486487 0.009398496240601503 0.25 0.731203007518797 0.009398496240601503 0.01237623762376238 0.01237623762376238 0.6460396039603961 0.3292079207920792 0.25 0.25 0.25 0.25 0.009398496240601503 0.25 0.009398496240601503 0.731203007518797 0.03378378378378379 0.03378378378378379 0.03378378378378379 0.8986486486486487 0.009398496240601503 0.731203007518797 0.009398496240601503 0.25 0.25 0.25 0.25 0.25 0.25 0.25 0.25 0.25 0.03378378378378379 0.03378378378378379 0.8986486486486487 0.03378378378378379 0.25 0.25 0.25 0.25 0.3292079207920792 0.01237623762376238 0.6460396039603961 0.01237623762376238 0.007575757575757576 0.007575757575757576 0.007575757575757576 0.9772727272727273 0.03378378378378379 0.03378378378378379 0.03378378378378379 0.8986486486486487 0.25 0.25 0.25 0.25 0.25 0.25 0.25 0.25 0.009398496240601503 0.009398496240601503 0.009398496240601503 0.9718045112781954 0.01811594202898551 0.9456521739130435 0.01811594202898551 0.01811594202898551 0.01811594202898551 0.4818840579710145 0.01811594202898551 0.4818840579710145 0.25 0.25 0.25 0.25 0.007575757575757576 0.3954545454545454 0.007575757575757576 0.5893939393939394 0.03378378378378379 0.8986486486486487 0.03378378378378379 0.03378378378378379 0.006345177664974619 0.4936548223350254 0.006345177664974619 0.4936548223350254 0.25 0.25 0.25 0.25 0.25 0.25 0.25 0.25 0.25 0.25 0.25 0.25 0.25 0.25 0.25 0.25 0.03378378378378379 0.8986486486486487 0.03378378378378379 0.03378378378378379 0.03378378378378379 0.03378378378378379 0.03378378378378379 0.8986486486486487 0.25 0.25 0.25 0.25 0.25 0.25 0.25 0.25 0.25 0.25 0.25 0.25 0.25 0.25 0.25 0.25 0.01811594202898551 0.01811594202898551 0.9456521739130435 0.01811594202898551 0.03378378378378379 0.03378378378378379 0.03378378378378379 0.8986486486486487 0.25 0.25 0.25 0.25 0.03378378378378379 0.03378378378378379 0.03378378378378379 0.8986486486486487 0.25 0.25 0.25 0.25 0.03378378378378379 0.8986486486486487 0.03378378378378379 0.03378378378378379 0.25 0.25 0.25 0.25 0.8986486486486487 0.03378378378378379 0.03378378378378379 0.03378378378378379 0.9718045112781954 0.009398496240601503 0.009398496240601503 0.009398496240601503 0.25 0.25 0.25 0.25 0.4818840579710145 0.4818840579710145 0.01811594202898551 0.01811594202898551</TABLE>
		</DEFINITION>
		<DEFINITION>
			<FOR>cg22202558</FOR>
			<TABLE>0.8510869565217392 0.04239130434782609 0.08804347826086957 0.01847826086956522</TABLE>
		</DEFINITION>
		<DEFINITION>
			<FOR>cg22659049</FOR>
			<TABLE>0.04673913043478261 0.03804347826086957 0.0141304347826087 0.9010869565217391</TABLE>
		</DEFINITION>
	</NETWORK>
</BIF>
